digraph Tree {
node [shape=box] ;
0 [label="love <= 1.5\ngini = 0.8\nsamples = 5\nvalue = [1, 1, 1, 1, 1]\nclass = codegeass"] ;
1 [label="death <= 5.0\ngini = 0.6667\nsamples = 3\nvalue = [0, 0, 1, 1, 1]\nclass = madomagi"] ;
0 -> 1 [labeldistance=2.5, labelangle=45, headlabel="True"] ;
2 [label="mystery <= 1.5\ngini = 0.5\nsamples = 2\nvalue = [0, 0, 0, 1, 1]\nclass = bakemono-gatari"] ;
1 -> 2 ;
3 [label="gini = 0.0\nsamples = 1\nvalue = [0, 0, 0, 0, 1]\nclass = gochiusa"] ;
2 -> 3 ;
4 [label="gini = 0.0\nsamples = 1\nvalue = [0, 0, 0, 1, 0]\nclass = bakemono-gatari"] ;
2 -> 4 ;
5 [label="gini = 0.0\nsamples = 1\nvalue = [0, 0, 1, 0, 0]\nclass = madomagi"] ;
1 -> 5 ;
6 [label="mystery <= 2.0\ngini = 0.5\nsamples = 2\nvalue = [1, 1, 0, 0, 0]\nclass = codegeass"] ;
0 -> 6 [labeldistance=2.5, labelangle=-45, headlabel="False"] ;
7 [label="gini = 0.0\nsamples = 1\nvalue = [0, 1, 0, 0, 0]\nclass = toradora"] ;
6 -> 7 ;
8 [label="gini = 0.0\nsamples = 1\nvalue = [1, 0, 0, 0, 0]\nclass = codegeass"] ;
6 -> 8 ;
}