digraph Tree {
node [shape=box] ;
0 [label="メインキャラが全員学校に通っている <= 0.5\ngini = 0.915\nsamples = 152\nvalue = [3, 15, 22, 10, 18, 3, 5, 16, 14, 8, 7, 3, 7, 4, 10, 7]\nclass = 2"] ;
1 [label="主人公がお金を稼いでいる（バイト含む） <= 0.5\ngini = 0.8701\nsamples = 79\nvalue = [2, 0, 21, 10, 0, 3, 5, 0, 3, 8, 7, 3, 7, 4, 0, 6]\nclass = 2"] ;
0 -> 1 [labeldistance=2.5, labelangle=45, headlabel="True"] ;
2 [label="メインキャラに明らかに人間じゃないやつがいる <= 0.5\ngini = 0.7622\nsamples = 48\nvalue = [2, 0, 20, 8, 0, 1, 2, 0, 3, 0, 0, 1, 7, 4, 0, 0]\nclass = 2"] ;
1 -> 2 ;
3 [label="魔法的要素がある <= 0.5\ngini = 0.6015\nsamples = 31\nvalue = [1, 0, 18, 0, 0, 0, 2, 0, 2, 0, 0, 1, 7, 0, 0, 0]\nclass = 2"] ;
2 -> 3 ;
4 [label="メインキャラ(主人公以外)が女のみ <= 0.5\ngini = 0.6528\nsamples = 12\nvalue = [1, 0, 3, 0, 0, 0, 2, 0, 0, 0, 0, 0, 6, 0, 0, 0]\nclass = 12"] ;
3 -> 4 ;
5 [label="主人公が男 <= 0.5\ngini = 0.54\nsamples = 10\nvalue = [1, 0, 3, 0, 0, 0, 0, 0, 0, 0, 0, 0, 6, 0, 0, 0]\nclass = 12"] ;
4 -> 5 ;
6 [label="主人公が10代 <= 0.5\ngini = 0.2778\nsamples = 6\nvalue = [1, 0, 0, 0, 0, 0, 0, 0, 0, 0, 0, 0, 5, 0, 0, 0]\nclass = 12"] ;
5 -> 6 ;
7 [label="gini = 0.0\nsamples = 1\nvalue = [1, 0, 0, 0, 0, 0, 0, 0, 0, 0, 0, 0, 0, 0, 0, 0]\nclass = 0"] ;
6 -> 7 ;
8 [label="gini = 0.0\nsamples = 5\nvalue = [0, 0, 0, 0, 0, 0, 0, 0, 0, 0, 0, 0, 5, 0, 0, 0]\nclass = 12"] ;
6 -> 8 ;
9 [label="舞台が現代日本 <= 0.5\ngini = 0.375\nsamples = 4\nvalue = [0, 0, 3, 0, 0, 0, 0, 0, 0, 0, 0, 0, 1, 0, 0, 0]\nclass = 2"] ;
5 -> 9 ;
10 [label="gini = 0.0\nsamples = 1\nvalue = [0, 0, 0, 0, 0, 0, 0, 0, 0, 0, 0, 0, 1, 0, 0, 0]\nclass = 12"] ;
9 -> 10 ;
11 [label="gini = 0.0\nsamples = 3\nvalue = [0, 0, 3, 0, 0, 0, 0, 0, 0, 0, 0, 0, 0, 0, 0, 0]\nclass = 2"] ;
9 -> 11 ;
12 [label="gini = 0.0\nsamples = 2\nvalue = [0, 0, 0, 0, 0, 0, 2, 0, 0, 0, 0, 0, 0, 0, 0, 0]\nclass = 6"] ;
4 -> 12 ;
13 [label="舞台が現代日本 <= 0.5\ngini = 0.3601\nsamples = 19\nvalue = [0, 0, 15, 0, 0, 0, 0, 0, 2, 0, 0, 1, 1, 0, 0, 0]\nclass = 2"] ;
3 -> 13 ;
14 [label="ロボットが出てくる <= 0.5\ngini = 0.625\nsamples = 4\nvalue = [0, 0, 1, 0, 0, 0, 0, 0, 2, 0, 0, 1, 0, 0, 0, 0]\nclass = 8"] ;
13 -> 14 ;
15 [label="gini = 0.0\nsamples = 2\nvalue = [0, 0, 0, 0, 0, 0, 0, 0, 2, 0, 0, 0, 0, 0, 0, 0]\nclass = 8"] ;
14 -> 15 ;
16 [label="メインキャラ(主人公以外)が女のみ <= 0.5\ngini = 0.5\nsamples = 2\nvalue = [0, 0, 1, 0, 0, 0, 0, 0, 0, 0, 0, 1, 0, 0, 0, 0]\nclass = 2"] ;
14 -> 16 ;
17 [label="gini = 0.0\nsamples = 1\nvalue = [0, 0, 1, 0, 0, 0, 0, 0, 0, 0, 0, 0, 0, 0, 0, 0]\nclass = 2"] ;
16 -> 17 ;
18 [label="gini = 0.0\nsamples = 1\nvalue = [0, 0, 0, 0, 0, 0, 0, 0, 0, 0, 0, 1, 0, 0, 0, 0]\nclass = 11"] ;
16 -> 18 ;
19 [label="主人公が男 <= 0.5\ngini = 0.1244\nsamples = 15\nvalue = [0, 0, 14, 0, 0, 0, 0, 0, 0, 0, 0, 0, 1, 0, 0, 0]\nclass = 2"] ;
13 -> 19 ;
20 [label="人が死ぬ <= 0.5\ngini = 0.2778\nsamples = 6\nvalue = [0, 0, 5, 0, 0, 0, 0, 0, 0, 0, 0, 0, 1, 0, 0, 0]\nclass = 2"] ;
19 -> 20 ;
21 [label="gini = 0.0\nsamples = 5\nvalue = [0, 0, 5, 0, 0, 0, 0, 0, 0, 0, 0, 0, 0, 0, 0, 0]\nclass = 2"] ;
20 -> 21 ;
22 [label="gini = 0.0\nsamples = 1\nvalue = [0, 0, 0, 0, 0, 0, 0, 0, 0, 0, 0, 0, 1, 0, 0, 0]\nclass = 12"] ;
20 -> 22 ;
23 [label="gini = 0.0\nsamples = 9\nvalue = [0, 0, 9, 0, 0, 0, 0, 0, 0, 0, 0, 0, 0, 0, 0, 0]\nclass = 2"] ;
19 -> 23 ;
24 [label="主人公が男 <= 0.5\ngini = 0.699\nsamples = 17\nvalue = [1, 0, 2, 8, 0, 1, 0, 0, 1, 0, 0, 0, 0, 4, 0, 0]\nclass = 3"] ;
2 -> 24 ;
25 [label="メインキャラが全員10代 <= 0.5\ngini = 0.6667\nsamples = 6\nvalue = [1, 0, 1, 0, 0, 1, 0, 0, 0, 0, 0, 0, 0, 3, 0, 0]\nclass = 13"] ;
24 -> 25 ;
26 [label="主人公がカタカナ名 <= 0.5\ngini = 0.5\nsamples = 2\nvalue = [1, 0, 0, 0, 0, 1, 0, 0, 0, 0, 0, 0, 0, 0, 0, 0]\nclass = 0"] ;
25 -> 26 ;
27 [label="gini = 0.0\nsamples = 1\nvalue = [1, 0, 0, 0, 0, 0, 0, 0, 0, 0, 0, 0, 0, 0, 0, 0]\nclass = 0"] ;
26 -> 27 ;
28 [label="gini = 0.0\nsamples = 1\nvalue = [0, 0, 0, 0, 0, 1, 0, 0, 0, 0, 0, 0, 0, 0, 0, 0]\nclass = 5"] ;
26 -> 28 ;
29 [label="ロボットが出てくる <= 0.5\ngini = 0.375\nsamples = 4\nvalue = [0, 0, 1, 0, 0, 0, 0, 0, 0, 0, 0, 0, 0, 3, 0, 0]\nclass = 13"] ;
25 -> 29 ;
30 [label="gini = 0.0\nsamples = 3\nvalue = [0, 0, 0, 0, 0, 0, 0, 0, 0, 0, 0, 0, 0, 3, 0, 0]\nclass = 13"] ;
29 -> 30 ;
31 [label="gini = 0.0\nsamples = 1\nvalue = [0, 0, 1, 0, 0, 0, 0, 0, 0, 0, 0, 0, 0, 0, 0, 0]\nclass = 2"] ;
29 -> 31 ;
32 [label="服が脱げる、破ける <= 0.5\ngini = 0.4463\nsamples = 11\nvalue = [0, 0, 1, 8, 0, 0, 0, 0, 1, 0, 0, 0, 0, 1, 0, 0]\nclass = 3"] ;
24 -> 32 ;
33 [label="gini = 0.0\nsamples = 1\nvalue = [0, 0, 1, 0, 0, 0, 0, 0, 0, 0, 0, 0, 0, 0, 0, 0]\nclass = 2"] ;
32 -> 33 ;
34 [label="メインキャラが全員10代 <= 0.5\ngini = 0.34\nsamples = 10\nvalue = [0, 0, 0, 8, 0, 0, 0, 0, 1, 0, 0, 0, 0, 1, 0, 0]\nclass = 3"] ;
32 -> 34 ;
35 [label="gini = 0.0\nsamples = 7\nvalue = [0, 0, 0, 7, 0, 0, 0, 0, 0, 0, 0, 0, 0, 0, 0, 0]\nclass = 3"] ;
34 -> 35 ;
36 [label="メインキャラ(主人公以外)が女のみ <= 0.5\ngini = 0.6667\nsamples = 3\nvalue = [0, 0, 0, 1, 0, 0, 0, 0, 1, 0, 0, 0, 0, 1, 0, 0]\nclass = 3"] ;
34 -> 36 ;
37 [label="舞台が現代日本 <= 0.5\ngini = 0.5\nsamples = 2\nvalue = [0, 0, 0, 1, 0, 0, 0, 0, 1, 0, 0, 0, 0, 0, 0, 0]\nclass = 3"] ;
36 -> 37 ;
38 [label="gini = 0.0\nsamples = 1\nvalue = [0, 0, 0, 0, 0, 0, 0, 0, 1, 0, 0, 0, 0, 0, 0, 0]\nclass = 8"] ;
37 -> 38 ;
39 [label="gini = 0.0\nsamples = 1\nvalue = [0, 0, 0, 1, 0, 0, 0, 0, 0, 0, 0, 0, 0, 0, 0, 0]\nclass = 3"] ;
37 -> 39 ;
40 [label="gini = 0.0\nsamples = 1\nvalue = [0, 0, 0, 0, 0, 0, 0, 0, 0, 0, 0, 0, 0, 1, 0, 0]\nclass = 13"] ;
36 -> 40 ;
41 [label="魔法的要素がある <= 0.5\ngini = 0.8221\nsamples = 31\nvalue = [0, 0, 1, 2, 0, 2, 3, 0, 0, 8, 7, 2, 0, 0, 0, 6]\nclass = 9"] ;
1 -> 41 ;
42 [label="舞台が現代日本 <= 0.5\ngini = 0.6172\nsamples = 16\nvalue = [0, 0, 0, 0, 0, 0, 3, 0, 0, 8, 5, 0, 0, 0, 0, 0]\nclass = 9"] ;
41 -> 42 ;
43 [label="メインキャラ(主人公以外)が女のみ <= 0.5\ngini = 0.4082\nsamples = 7\nvalue = [0, 0, 0, 0, 0, 0, 2, 0, 0, 0, 5, 0, 0, 0, 0, 0]\nclass = 10"] ;
42 -> 43 ;
44 [label="gini = 0.0\nsamples = 5\nvalue = [0, 0, 0, 0, 0, 0, 0, 0, 0, 0, 5, 0, 0, 0, 0, 0]\nclass = 10"] ;
43 -> 44 ;
45 [label="gini = 0.0\nsamples = 2\nvalue = [0, 0, 0, 0, 0, 0, 2, 0, 0, 0, 0, 0, 0, 0, 0, 0]\nclass = 6"] ;
43 -> 45 ;
46 [label="メインキャラに明らかに人間じゃないやつがいる <= 0.5\ngini = 0.1975\nsamples = 9\nvalue = [0, 0, 0, 0, 0, 0, 1, 0, 0, 8, 0, 0, 0, 0, 0, 0]\nclass = 9"] ;
42 -> 46 ;
47 [label="gini = 0.0\nsamples = 8\nvalue = [0, 0, 0, 0, 0, 0, 0, 0, 0, 8, 0, 0, 0, 0, 0, 0]\nclass = 9"] ;
46 -> 47 ;
48 [label="gini = 0.0\nsamples = 1\nvalue = [0, 0, 0, 0, 0, 0, 1, 0, 0, 0, 0, 0, 0, 0, 0, 0]\nclass = 6"] ;
46 -> 48 ;
49 [label="主人公がカタカナ名 <= 0.5\ngini = 0.7644\nsamples = 15\nvalue = [0, 0, 1, 2, 0, 2, 0, 0, 0, 0, 2, 2, 0, 0, 0, 6]\nclass = 15"] ;
41 -> 49 ;
50 [label="メインキャラが全員10代 <= 0.5\ngini = 0.6281\nsamples = 11\nvalue = [0, 0, 1, 2, 0, 0, 0, 0, 0, 0, 0, 2, 0, 0, 0, 6]\nclass = 15"] ;
49 -> 50 ;
51 [label="服が脱げる、破ける <= 0.5\ngini = 0.4938\nsamples = 9\nvalue = [0, 0, 1, 2, 0, 0, 0, 0, 0, 0, 0, 0, 0, 0, 0, 6]\nclass = 15"] ;
50 -> 51 ;
52 [label="主人公が学校に通っている <= 0.5\ngini = 0.2778\nsamples = 6\nvalue = [0, 0, 1, 0, 0, 0, 0, 0, 0, 0, 0, 0, 0, 0, 0, 5]\nclass = 15"] ;
51 -> 52 ;
53 [label="gini = 0.0\nsamples = 5\nvalue = [0, 0, 0, 0, 0, 0, 0, 0, 0, 0, 0, 0, 0, 0, 0, 5]\nclass = 15"] ;
52 -> 53 ;
54 [label="gini = 0.0\nsamples = 1\nvalue = [0, 0, 1, 0, 0, 0, 0, 0, 0, 0, 0, 0, 0, 0, 0, 0]\nclass = 2"] ;
52 -> 54 ;
55 [label="人が死ぬ <= 0.5\ngini = 0.4444\nsamples = 3\nvalue = [0, 0, 0, 2, 0, 0, 0, 0, 0, 0, 0, 0, 0, 0, 0, 1]\nclass = 3"] ;
51 -> 55 ;
56 [label="gini = 0.0\nsamples = 2\nvalue = [0, 0, 0, 2, 0, 0, 0, 0, 0, 0, 0, 0, 0, 0, 0, 0]\nclass = 3"] ;
55 -> 56 ;
57 [label="gini = 0.0\nsamples = 1\nvalue = [0, 0, 0, 0, 0, 0, 0, 0, 0, 0, 0, 0, 0, 0, 0, 1]\nclass = 15"] ;
55 -> 57 ;
58 [label="gini = 0.0\nsamples = 2\nvalue = [0, 0, 0, 0, 0, 0, 0, 0, 0, 0, 0, 2, 0, 0, 0, 0]\nclass = 11"] ;
50 -> 58 ;
59 [label="主人公が男 <= 0.5\ngini = 0.5\nsamples = 4\nvalue = [0, 0, 0, 0, 0, 2, 0, 0, 0, 0, 2, 0, 0, 0, 0, 0]\nclass = 5"] ;
49 -> 59 ;
60 [label="gini = 0.0\nsamples = 2\nvalue = [0, 0, 0, 0, 0, 2, 0, 0, 0, 0, 0, 0, 0, 0, 0, 0]\nclass = 5"] ;
59 -> 60 ;
61 [label="gini = 0.0\nsamples = 2\nvalue = [0, 0, 0, 0, 0, 0, 0, 0, 0, 0, 2, 0, 0, 0, 0, 0]\nclass = 10"] ;
59 -> 61 ;
62 [label="主人公が男 <= 0.5\ngini = 0.8069\nsamples = 73\nvalue = [1, 15, 1, 0, 18, 0, 0, 16, 11, 0, 0, 0, 0, 0, 10, 1]\nclass = 4"] ;
0 -> 62 [labeldistance=2.5, labelangle=-45, headlabel="False"] ;
63 [label="メインキャラ(主人公以外)が女のみ <= 0.5\ngini = 0.6181\nsamples = 31\nvalue = [1, 3, 0, 0, 0, 0, 0, 16, 1, 0, 0, 0, 0, 0, 10, 0]\nclass = 7"] ;
62 -> 63 ;
64 [label="服が脱げる、破ける <= 0.5\ngini = 0.5067\nsamples = 15\nvalue = [1, 3, 0, 0, 0, 0, 0, 0, 1, 0, 0, 0, 0, 0, 10, 0]\nclass = 14"] ;
63 -> 64 ;
65 [label="主人公が10代 <= 0.5\ngini = 0.1653\nsamples = 11\nvalue = [1, 0, 0, 0, 0, 0, 0, 0, 0, 0, 0, 0, 0, 0, 10, 0]\nclass = 14"] ;
64 -> 65 ;
66 [label="gini = 0.0\nsamples = 1\nvalue = [1, 0, 0, 0, 0, 0, 0, 0, 0, 0, 0, 0, 0, 0, 0, 0]\nclass = 0"] ;
65 -> 66 ;
67 [label="gini = 0.0\nsamples = 10\nvalue = [0, 0, 0, 0, 0, 0, 0, 0, 0, 0, 0, 0, 0, 0, 10, 0]\nclass = 14"] ;
65 -> 67 ;
68 [label="舞台が現代日本 <= 0.5\ngini = 0.375\nsamples = 4\nvalue = [0, 3, 0, 0, 0, 0, 0, 0, 1, 0, 0, 0, 0, 0, 0, 0]\nclass = 1"] ;
64 -> 68 ;
69 [label="gini = 0.0\nsamples = 1\nvalue = [0, 0, 0, 0, 0, 0, 0, 0, 1, 0, 0, 0, 0, 0, 0, 0]\nclass = 8"] ;
68 -> 69 ;
70 [label="gini = 0.0\nsamples = 3\nvalue = [0, 3, 0, 0, 0, 0, 0, 0, 0, 0, 0, 0, 0, 0, 0, 0]\nclass = 1"] ;
68 -> 70 ;
71 [label="gini = 0.0\nsamples = 16\nvalue = [0, 0, 0, 0, 0, 0, 0, 16, 0, 0, 0, 0, 0, 0, 0, 0]\nclass = 7"] ;
63 -> 71 ;
72 [label="服が脱げる、破ける <= 0.5\ngini = 0.6769\nsamples = 42\nvalue = [0, 12, 1, 0, 18, 0, 0, 0, 10, 0, 0, 0, 0, 0, 0, 1]\nclass = 4"] ;
62 -> 72 ;
73 [label="舞台が現代日本 <= 0.5\ngini = 0.3667\nsamples = 23\nvalue = [0, 0, 1, 0, 18, 0, 0, 0, 3, 0, 0, 0, 0, 0, 0, 1]\nclass = 4"] ;
72 -> 73 ;
74 [label="ロボットが出てくる <= 0.5\ngini = 0.375\nsamples = 4\nvalue = [0, 0, 0, 0, 1, 0, 0, 0, 3, 0, 0, 0, 0, 0, 0, 0]\nclass = 8"] ;
73 -> 74 ;
75 [label="gini = 0.0\nsamples = 3\nvalue = [0, 0, 0, 0, 0, 0, 0, 0, 3, 0, 0, 0, 0, 0, 0, 0]\nclass = 8"] ;
74 -> 75 ;
76 [label="gini = 0.0\nsamples = 1\nvalue = [0, 0, 0, 0, 1, 0, 0, 0, 0, 0, 0, 0, 0, 0, 0, 0]\nclass = 4"] ;
74 -> 76 ;
77 [label="主人公がカタカナ名 <= 0.5\ngini = 0.1939\nsamples = 19\nvalue = [0, 0, 1, 0, 17, 0, 0, 0, 0, 0, 0, 0, 0, 0, 0, 1]\nclass = 4"] ;
73 -> 77 ;
78 [label="メインキャラが全員10代 <= 0.5\ngini = 0.1049\nsamples = 18\nvalue = [0, 0, 1, 0, 17, 0, 0, 0, 0, 0, 0, 0, 0, 0, 0, 0]\nclass = 4"] ;
77 -> 78 ;
79 [label="gini = 0.0\nsamples = 1\nvalue = [0, 0, 1, 0, 0, 0, 0, 0, 0, 0, 0, 0, 0, 0, 0, 0]\nclass = 2"] ;
78 -> 79 ;
80 [label="gini = 0.0\nsamples = 17\nvalue = [0, 0, 0, 0, 17, 0, 0, 0, 0, 0, 0, 0, 0, 0, 0, 0]\nclass = 4"] ;
78 -> 80 ;
81 [label="gini = 0.0\nsamples = 1\nvalue = [0, 0, 0, 0, 0, 0, 0, 0, 0, 0, 0, 0, 0, 0, 0, 1]\nclass = 15"] ;
77 -> 81 ;
82 [label="舞台が現代日本 <= 0.5\ngini = 0.4654\nsamples = 19\nvalue = [0, 12, 0, 0, 0, 0, 0, 0, 7, 0, 0, 0, 0, 0, 0, 0]\nclass = 1"] ;
72 -> 82 ;
83 [label="gini = 0.0\nsamples = 7\nvalue = [0, 0, 0, 0, 0, 0, 0, 0, 7, 0, 0, 0, 0, 0, 0, 0]\nclass = 8"] ;
82 -> 83 ;
84 [label="gini = 0.0\nsamples = 12\nvalue = [0, 12, 0, 0, 0, 0, 0, 0, 0, 0, 0, 0, 0, 0, 0, 0]\nclass = 1"] ;
82 -> 84 ;
}