digraph Tree {
node [shape=box] ;
0 [label="メインキャラ(主人公以外)が女のみ <= 0.5\ngini = 0.9267\nsamples = 152\nvalue = [19, 12, 10, 7, 15, 10, 6, 12, 8, 11, 10, 4, 4, 7, 5, 12]\nclass = a"] ;
1 [label="魔法的要素がある <= 0.5\ngini = 0.9072\nsamples = 104\nvalue = [0, 11, 4, 6, 14, 0, 6, 12, 8, 10, 9, 0, 4, 7, 1, 12]\nclass = e"] ;
0 -> 1 [labeldistance=2.5, labelangle=45, headlabel="True"] ;
2 [label="メインキャラが全員学校に通っている <= 0.5\ngini = 0.8271\nsamples = 55\nvalue = [0, 11, 0, 6, 0, 0, 6, 12, 8, 0, 0, 0, 1, 0, 0, 11]\nclass = h"] ;
1 -> 2 ;
3 [label="主人公が学校に通っている <= 0.5\ngini = 0.6632\nsamples = 24\nvalue = [0, 11, 0, 6, 0, 0, 6, 0, 0, 0, 0, 0, 1, 0, 0, 0]\nclass = b"] ;
2 -> 3 ;
4 [label="舞台が現代日本 <= 0.5\ngini = 0.5\nsamples = 12\nvalue = [0, 0, 0, 6, 0, 0, 6, 0, 0, 0, 0, 0, 0, 0, 0, 0]\nclass = d"] ;
3 -> 4 ;
5 [label="gini = 0.0\nsamples = 6\nvalue = [0, 0, 0, 0, 0, 0, 6, 0, 0, 0, 0, 0, 0, 0, 0, 0]\nclass = g"] ;
4 -> 5 ;
6 [label="gini = 0.0\nsamples = 6\nvalue = [0, 0, 0, 6, 0, 0, 0, 0, 0, 0, 0, 0, 0, 0, 0, 0]\nclass = d"] ;
4 -> 6 ;
7 [label="主人公がカタカナ名 <= 0.5\ngini = 0.1528\nsamples = 12\nvalue = [0, 11, 0, 0, 0, 0, 0, 0, 0, 0, 0, 0, 1, 0, 0, 0]\nclass = b"] ;
3 -> 7 ;
8 [label="gini = 0.0\nsamples = 11\nvalue = [0, 11, 0, 0, 0, 0, 0, 0, 0, 0, 0, 0, 0, 0, 0, 0]\nclass = b"] ;
7 -> 8 ;
9 [label="gini = 0.0\nsamples = 1\nvalue = [0, 0, 0, 0, 0, 0, 0, 0, 0, 0, 0, 0, 1, 0, 0, 0]\nclass = m"] ;
7 -> 9 ;
10 [label="主人公が男 <= 0.5\ngini = 0.6576\nsamples = 31\nvalue = [0, 0, 0, 0, 0, 0, 0, 12, 8, 0, 0, 0, 0, 0, 0, 11]\nclass = h"] ;
2 -> 10 ;
11 [label="gini = 0.0\nsamples = 12\nvalue = [0, 0, 0, 0, 0, 0, 0, 12, 0, 0, 0, 0, 0, 0, 0, 0]\nclass = h"] ;
10 -> 11 ;
12 [label="服が脱げる、破ける <= 0.5\ngini = 0.4875\nsamples = 19\nvalue = [0, 0, 0, 0, 0, 0, 0, 0, 8, 0, 0, 0, 0, 0, 0, 11]\nclass = p"] ;
10 -> 12 ;
13 [label="gini = 0.0\nsamples = 11\nvalue = [0, 0, 0, 0, 0, 0, 0, 0, 0, 0, 0, 0, 0, 0, 0, 11]\nclass = p"] ;
12 -> 13 ;
14 [label="gini = 0.0\nsamples = 8\nvalue = [0, 0, 0, 0, 0, 0, 0, 0, 8, 0, 0, 0, 0, 0, 0, 0]\nclass = i"] ;
12 -> 14 ;
15 [label="主人公が学校に通っている <= 0.5\ngini = 0.8113\nsamples = 49\nvalue = [0, 0, 4, 0, 14, 0, 0, 0, 0, 10, 9, 0, 3, 7, 1, 1]\nclass = e"] ;
1 -> 15 ;
16 [label="ロボットが出てくる <= 0.5\ngini = 0.6159\nsamples = 17\nvalue = [0, 0, 2, 0, 0, 0, 0, 0, 0, 10, 1, 0, 2, 1, 1, 0]\nclass = j"] ;
15 -> 16 ;
17 [label="主人公がお金を稼いでいる（バイト含む） <= 0.5\ngini = 0.5244\nsamples = 15\nvalue = [0, 0, 2, 0, 0, 0, 0, 0, 0, 10, 1, 0, 0, 1, 1, 0]\nclass = j"] ;
16 -> 17 ;
18 [label="舞台が現代日本 <= 0.5\ngini = 0.7778\nsamples = 6\nvalue = [0, 0, 2, 0, 0, 0, 0, 0, 0, 1, 1, 0, 0, 1, 1, 0]\nclass = c"] ;
17 -> 18 ;
19 [label="服が脱げる、破ける <= 0.5\ngini = 0.4444\nsamples = 3\nvalue = [0, 0, 2, 0, 0, 0, 0, 0, 0, 1, 0, 0, 0, 0, 0, 0]\nclass = c"] ;
18 -> 19 ;
20 [label="gini = 0.0\nsamples = 1\nvalue = [0, 0, 0, 0, 0, 0, 0, 0, 0, 1, 0, 0, 0, 0, 0, 0]\nclass = j"] ;
19 -> 20 ;
21 [label="gini = 0.0\nsamples = 2\nvalue = [0, 0, 2, 0, 0, 0, 0, 0, 0, 0, 0, 0, 0, 0, 0, 0]\nclass = c"] ;
19 -> 21 ;
22 [label="メインキャラに明らかに人間じゃないやつがいる <= 0.5\ngini = 0.6667\nsamples = 3\nvalue = [0, 0, 0, 0, 0, 0, 0, 0, 0, 0, 1, 0, 0, 1, 1, 0]\nclass = k"] ;
18 -> 22 ;
23 [label="服が脱げる、破ける <= 0.5\ngini = 0.5\nsamples = 2\nvalue = [0, 0, 0, 0, 0, 0, 0, 0, 0, 0, 0, 0, 0, 1, 1, 0]\nclass = n"] ;
22 -> 23 ;
24 [label="gini = 0.0\nsamples = 1\nvalue = [0, 0, 0, 0, 0, 0, 0, 0, 0, 0, 0, 0, 0, 0, 1, 0]\nclass = o"] ;
23 -> 24 ;
25 [label="gini = 0.0\nsamples = 1\nvalue = [0, 0, 0, 0, 0, 0, 0, 0, 0, 0, 0, 0, 0, 1, 0, 0]\nclass = n"] ;
23 -> 25 ;
26 [label="gini = 0.0\nsamples = 1\nvalue = [0, 0, 0, 0, 0, 0, 0, 0, 0, 0, 1, 0, 0, 0, 0, 0]\nclass = k"] ;
22 -> 26 ;
27 [label="gini = 0.0\nsamples = 9\nvalue = [0, 0, 0, 0, 0, 0, 0, 0, 0, 9, 0, 0, 0, 0, 0, 0]\nclass = j"] ;
17 -> 27 ;
28 [label="gini = 0.0\nsamples = 2\nvalue = [0, 0, 0, 0, 0, 0, 0, 0, 0, 0, 0, 0, 2, 0, 0, 0]\nclass = m"] ;
16 -> 28 ;
29 [label="服が脱げる、破ける <= 0.5\ngini = 0.7051\nsamples = 32\nvalue = [0, 0, 2, 0, 14, 0, 0, 0, 0, 0, 8, 0, 1, 6, 0, 1]\nclass = e"] ;
15 -> 29 ;
30 [label="主人公がカタカナ名 <= 0.5\ngini = 0.3114\nsamples = 17\nvalue = [0, 0, 0, 0, 14, 0, 0, 0, 0, 0, 0, 0, 1, 1, 0, 1]\nclass = e"] ;
29 -> 30 ;
31 [label="メインキャラが全員学校に通っている <= 0.5\ngini = 0.2266\nsamples = 16\nvalue = [0, 0, 0, 0, 14, 0, 0, 0, 0, 0, 0, 0, 0, 1, 0, 1]\nclass = e"] ;
30 -> 31 ;
32 [label="gini = 0.0\nsamples = 11\nvalue = [0, 0, 0, 0, 11, 0, 0, 0, 0, 0, 0, 0, 0, 0, 0, 0]\nclass = e"] ;
31 -> 32 ;
33 [label="メインキャラが全員10代 <= 0.5\ngini = 0.56\nsamples = 5\nvalue = [0, 0, 0, 0, 3, 0, 0, 0, 0, 0, 0, 0, 0, 1, 0, 1]\nclass = e"] ;
31 -> 33 ;
34 [label="gini = 0.0\nsamples = 3\nvalue = [0, 0, 0, 0, 3, 0, 0, 0, 0, 0, 0, 0, 0, 0, 0, 0]\nclass = e"] ;
33 -> 34 ;
35 [label="メインキャラに明らかに人間じゃないやつがいる <= 0.5\ngini = 0.5\nsamples = 2\nvalue = [0, 0, 0, 0, 0, 0, 0, 0, 0, 0, 0, 0, 0, 1, 0, 1]\nclass = n"] ;
33 -> 35 ;
36 [label="gini = 0.0\nsamples = 1\nvalue = [0, 0, 0, 0, 0, 0, 0, 0, 0, 0, 0, 0, 0, 1, 0, 0]\nclass = n"] ;
35 -> 36 ;
37 [label="gini = 0.0\nsamples = 1\nvalue = [0, 0, 0, 0, 0, 0, 0, 0, 0, 0, 0, 0, 0, 0, 0, 1]\nclass = p"] ;
35 -> 37 ;
38 [label="gini = 0.0\nsamples = 1\nvalue = [0, 0, 0, 0, 0, 0, 0, 0, 0, 0, 0, 0, 1, 0, 0, 0]\nclass = m"] ;
30 -> 38 ;
39 [label="メインキャラが全員学校に通っている <= 0.5\ngini = 0.5867\nsamples = 15\nvalue = [0, 0, 2, 0, 0, 0, 0, 0, 0, 0, 8, 0, 0, 5, 0, 0]\nclass = k"] ;
29 -> 39 ;
40 [label="舞台が現代日本 <= 0.5\ngini = 0.1975\nsamples = 9\nvalue = [0, 0, 1, 0, 0, 0, 0, 0, 0, 0, 8, 0, 0, 0, 0, 0]\nclass = k"] ;
39 -> 40 ;
41 [label="gini = 0.0\nsamples = 1\nvalue = [0, 0, 1, 0, 0, 0, 0, 0, 0, 0, 0, 0, 0, 0, 0, 0]\nclass = c"] ;
40 -> 41 ;
42 [label="gini = 0.0\nsamples = 8\nvalue = [0, 0, 0, 0, 0, 0, 0, 0, 0, 0, 8, 0, 0, 0, 0, 0]\nclass = k"] ;
40 -> 42 ;
43 [label="メインキャラが全員10代 <= 0.5\ngini = 0.2778\nsamples = 6\nvalue = [0, 0, 1, 0, 0, 0, 0, 0, 0, 0, 0, 0, 0, 5, 0, 0]\nclass = n"] ;
39 -> 43 ;
44 [label="gini = 0.0\nsamples = 1\nvalue = [0, 0, 1, 0, 0, 0, 0, 0, 0, 0, 0, 0, 0, 0, 0, 0]\nclass = c"] ;
43 -> 44 ;
45 [label="gini = 0.0\nsamples = 5\nvalue = [0, 0, 0, 0, 0, 0, 0, 0, 0, 0, 0, 0, 0, 5, 0, 0]\nclass = n"] ;
43 -> 45 ;
46 [label="主人公が男 <= 0.5\ngini = 0.7682\nsamples = 48\nvalue = [19, 1, 6, 1, 1, 10, 0, 0, 0, 1, 1, 4, 0, 0, 4, 0]\nclass = a"] ;
0 -> 46 [labeldistance=2.5, labelangle=-45, headlabel="False"] ;
47 [label="主人公が学校に通っている <= 0.5\ngini = 0.4467\nsamples = 26\nvalue = [19, 1, 0, 1, 0, 0, 0, 0, 0, 0, 1, 3, 0, 0, 1, 0]\nclass = a"] ;
46 -> 47 ;
48 [label="服が脱げる、破ける <= 0.5\ngini = 0.56\nsamples = 5\nvalue = [0, 1, 0, 1, 0, 0, 0, 0, 0, 0, 0, 3, 0, 0, 0, 0]\nclass = l"] ;
47 -> 48 ;
49 [label="舞台が現代日本 <= 0.5\ngini = 0.5\nsamples = 2\nvalue = [0, 1, 0, 1, 0, 0, 0, 0, 0, 0, 0, 0, 0, 0, 0, 0]\nclass = b"] ;
48 -> 49 ;
50 [label="gini = 0.0\nsamples = 1\nvalue = [0, 0, 0, 1, 0, 0, 0, 0, 0, 0, 0, 0, 0, 0, 0, 0]\nclass = d"] ;
49 -> 50 ;
51 [label="gini = 0.0\nsamples = 1\nvalue = [0, 1, 0, 0, 0, 0, 0, 0, 0, 0, 0, 0, 0, 0, 0, 0]\nclass = b"] ;
49 -> 51 ;
52 [label="gini = 0.0\nsamples = 3\nvalue = [0, 0, 0, 0, 0, 0, 0, 0, 0, 0, 0, 3, 0, 0, 0, 0]\nclass = l"] ;
48 -> 52 ;
53 [label="服が脱げる、破ける <= 0.5\ngini = 0.1769\nsamples = 21\nvalue = [19, 0, 0, 0, 0, 0, 0, 0, 0, 0, 1, 0, 0, 0, 1, 0]\nclass = a"] ;
47 -> 53 ;
54 [label="gini = 0.0\nsamples = 16\nvalue = [16, 0, 0, 0, 0, 0, 0, 0, 0, 0, 0, 0, 0, 0, 0, 0]\nclass = a"] ;
53 -> 54 ;
55 [label="魔法的要素がある <= 0.5\ngini = 0.56\nsamples = 5\nvalue = [3, 0, 0, 0, 0, 0, 0, 0, 0, 0, 1, 0, 0, 0, 1, 0]\nclass = a"] ;
53 -> 55 ;
56 [label="gini = 0.0\nsamples = 3\nvalue = [3, 0, 0, 0, 0, 0, 0, 0, 0, 0, 0, 0, 0, 0, 0, 0]\nclass = a"] ;
55 -> 56 ;
57 [label="メインキャラに明らかに人間じゃないやつがいる <= 0.5\ngini = 0.5\nsamples = 2\nvalue = [0, 0, 0, 0, 0, 0, 0, 0, 0, 0, 1, 0, 0, 0, 1, 0]\nclass = k"] ;
55 -> 57 ;
58 [label="gini = 0.0\nsamples = 1\nvalue = [0, 0, 0, 0, 0, 0, 0, 0, 0, 0, 1, 0, 0, 0, 0, 0]\nclass = k"] ;
57 -> 58 ;
59 [label="gini = 0.0\nsamples = 1\nvalue = [0, 0, 0, 0, 0, 0, 0, 0, 0, 0, 0, 0, 0, 0, 1, 0]\nclass = o"] ;
57 -> 59 ;
60 [label="人が死ぬ <= 0.5\ngini = 0.6942\nsamples = 22\nvalue = [0, 0, 6, 0, 1, 10, 0, 0, 0, 1, 0, 1, 0, 0, 3, 0]\nclass = f"] ;
46 -> 60 ;
61 [label="メインキャラに明らかに人間じゃないやつがいる <= 0.5\ngini = 0.615\nsamples = 19\nvalue = [0, 0, 6, 0, 1, 10, 0, 0, 0, 1, 0, 1, 0, 0, 0, 0]\nclass = f"] ;
60 -> 61 ;
62 [label="舞台が現代日本 <= 0.5\ngini = 0.4592\nsamples = 14\nvalue = [0, 0, 2, 0, 1, 10, 0, 0, 0, 0, 0, 1, 0, 0, 0, 0]\nclass = f"] ;
61 -> 62 ;
63 [label="主人公がお金を稼いでいる（バイト含む） <= 0.5\ngini = 0.4444\nsamples = 3\nvalue = [0, 0, 2, 0, 0, 0, 0, 0, 0, 0, 0, 1, 0, 0, 0, 0]\nclass = c"] ;
62 -> 63 ;
64 [label="gini = 0.0\nsamples = 2\nvalue = [0, 0, 2, 0, 0, 0, 0, 0, 0, 0, 0, 0, 0, 0, 0, 0]\nclass = c"] ;
63 -> 64 ;
65 [label="gini = 0.0\nsamples = 1\nvalue = [0, 0, 0, 0, 0, 0, 0, 0, 0, 0, 0, 1, 0, 0, 0, 0]\nclass = l"] ;
63 -> 65 ;
66 [label="メインキャラが全員学校に通っている <= 0.5\ngini = 0.1653\nsamples = 11\nvalue = [0, 0, 0, 0, 1, 10, 0, 0, 0, 0, 0, 0, 0, 0, 0, 0]\nclass = f"] ;
62 -> 66 ;
67 [label="gini = 0.0\nsamples = 1\nvalue = [0, 0, 0, 0, 1, 0, 0, 0, 0, 0, 0, 0, 0, 0, 0, 0]\nclass = e"] ;
66 -> 67 ;
68 [label="gini = 0.0\nsamples = 10\nvalue = [0, 0, 0, 0, 0, 10, 0, 0, 0, 0, 0, 0, 0, 0, 0, 0]\nclass = f"] ;
66 -> 68 ;
69 [label="主人公が学校に通っている <= 0.5\ngini = 0.32\nsamples = 5\nvalue = [0, 0, 4, 0, 0, 0, 0, 0, 0, 1, 0, 0, 0, 0, 0, 0]\nclass = c"] ;
61 -> 69 ;
70 [label="gini = 0.0\nsamples = 1\nvalue = [0, 0, 0, 0, 0, 0, 0, 0, 0, 1, 0, 0, 0, 0, 0, 0]\nclass = j"] ;
69 -> 70 ;
71 [label="gini = 0.0\nsamples = 4\nvalue = [0, 0, 4, 0, 0, 0, 0, 0, 0, 0, 0, 0, 0, 0, 0, 0]\nclass = c"] ;
69 -> 71 ;
72 [label="gini = 0.0\nsamples = 3\nvalue = [0, 0, 0, 0, 0, 0, 0, 0, 0, 0, 0, 0, 0, 0, 3, 0]\nclass = o"] ;
60 -> 72 ;
}